#ifndef NEURAL_NETWORK_WEIGHTS_H
#define NEURAL_NETWORK_WEIGHTS_H

float weights_layer_0[] = {-0.05610722303390503, 0.07681628316640854, 0.24620530009269714, -0.3058064579963684, -0.47087645530700684, -0.15070311725139618, 0.14117851853370667, -0.2373221218585968, -0.24187348783016205, 0.4285891354084015, -0.01797259971499443, -0.4606875777244568, 0.09967867285013199, 0.17108511924743652, -0.05227920413017273, -0.11387992650270462, -0.20329466462135315, 0.29816192388534546, 0.4185013473033905, -0.2196527123451233, 0.03126147389411926, -0.38848942518234253, 0.20244577527046204, 0.391666978597641, 0.22743315994739532, 0.29070937633514404, -0.1982596218585968, 0.026464907452464104, -0.23400849103927612, 0.07092830538749695, -0.28477978706359863, -0.34921157360076904, -0.09194856137037277, -0.31997162103652954, -0.15448686480522156, -0.3171939253807068, -0.3513583242893219, 0.08756615966558456, -0.1405351608991623, 0.13097937405109406, -0.43873077630996704, -0.38225889205932617, -0.3145436644554138, 0.13306988775730133, -0.31791311502456665, -0.5169843435287476, -0.41799455881118774, -0.06638868153095245, -0.34131312370300293, 0.12954846024513245, 0.11612030118703842, -0.04610803723335266, 0.14894887804985046, -0.1605740338563919, 0.11845172941684723, -0.28281915187835693, 0.03198164328932762, 0.11678337305784225, 0.4498193860054016, 0.020349524915218353, 0.32646986842155457, -0.4948495626449585, -0.10151353478431702, -0.08079776167869568, 0.12358388304710388, 0.1561007797718048, };

float biases_layer_0[] = {0.0, -0.08139006793498993, -0.0337710939347744, -0.028231196105480194, 0.0, -0.007086894474923611, -0.34642618894577026, 0.0, 0.0, -0.07499080896377563, -0.30977171659469604, 0.0, -0.09181544929742813, -0.08449830859899521, -0.04962939769029617, -0.27569493651390076, -0.13537375628948212, -0.02085556648671627, 0.0, 0.0, 0.0, -0.011512751691043377, };

// Layer dropout has no weights or biases

float weights_layer_2[] = {-0.12171587347984314, 0.1281091570854187, -0.061469197273254395, 0.2988893389701843, -0.46235811710357666, 0.1910555362701416, -0.14138054847717285, -0.14535552263259888, -0.4783479571342468, 0.3441605269908905, 0.24880237877368927, 0.06402637809515, -0.08285848796367645, 0.032913338392972946, -0.18874992430210114, 0.014584365300834179, 0.048799384385347366, -0.625331699848175, -0.3609330952167511, -0.08844982832670212, -0.41197583079338074, -0.10501035302877426, 0.07435906678438187, -0.22419343888759613, -0.37375080585479736, -0.17471790313720703, -0.26744383573532104, -0.3973964750766754, -0.225317120552063, -0.1546933352947235, 0.46051517128944397, -0.24593620002269745, 0.0014268868835642934, 0.08877652883529663, -0.09741735458374023, 0.3556463420391083, -0.05982594937086105, 0.15528665482997894, 0.08279792219400406, -0.11775626987218857, -0.05473790317773819, -0.07049018144607544, 0.010084390640258789, -0.40065205097198486, 0.1542949080467224, 0.19149643182754517, 0.16682147979736328, 0.4053463935852051, 0.08661496639251709, 0.2944382429122925, 0.35139620304107666, 0.15022683143615723, -0.33213984966278076, 0.038685739040374756, -0.37266072630882263, 0.329436331987381, -0.28544971346855164, -0.13901638984680176, 0.3577491044998169, 0.21487917006015778, 0.08265906572341919, -0.2612873613834381, -0.16584177315235138, 0.18095546960830688, 0.14975561201572418, 0.14443102478981018, -0.2540320158004761, -0.26327234506607056, -0.05188828706741333, -0.37332677841186523, 0.3200165033340454, 0.07085323333740234, -0.39657413959503174, -0.23176944255828857, -0.010347471572458744, -0.3268422484397888, -0.3022901713848114, 0.0013116156915202737, -0.13029424846172333, 0.28993546962738037, 0.39350712299346924, -0.08856485038995743, -0.3845870792865753, -0.26665574312210083, 0.30298709869384766, 0.2517658472061157, 0.28779271245002747, -0.38129353523254395, -0.2833426892757416, 0.32613298296928406, 0.007349580992013216, 0.3169043958187103, 0.06148740276694298, 0.3225591778755188, -0.20311734080314636, -0.17784160375595093, 0.1173529401421547, -0.2648232579231262, 0.258137583732605, -0.15898993611335754, 0.03382311016321182, 0.18766291439533234, -0.3288784623146057, -0.14158785343170166, -0.03448405861854553, -0.12187282741069794, 0.29166099429130554, -0.21300330758094788, -0.3579505383968353, 0.20755231380462646, 0.07769536972045898, -0.10088875889778137, 0.02974879741668701, 0.4591788053512573, -0.4447682499885559, -0.4241468608379364, -0.33624976873397827, 0.08245104551315308, 0.06018352508544922, 0.3288228511810303, 0.014057695865631104, 0.1883983612060547, 0.1724122166633606, -0.14658242464065552, 0.4003288149833679, 0.020897984504699707, -0.0021153746638447046, 0.38232120871543884, -0.40932896733283997, -0.419646292924881, -0.03706765174865723, -0.19232945144176483, };

float biases_layer_2[] = {0.25745925307273865, -0.27664437890052795, 0.05931717902421951, 0.15168079733848572, 0.21985650062561035, -0.12338212132453918, };

#endif // NEURAL_NETWORK_WEIGHTS_H
